-8.571157194097102083e-01
2.961395834075913891e-01
-8.080101040259421996e-01
9.956498423237336581e-02
-1.542443390771999767e-01
-9.209300451731394777e-01
-6.217461459295674508e-01
6.279018944008710745e-01
4.154128740636779948e-01
5.696886011936228567e-01
5.047601185054012563e-01
2.714715993019419793e-01
-9.574951133424238758e-01
-4.186741536880036474e-01
6.696712870093244341e-01
-2.360034611362966661e-01
6.523775888511456067e-01
-1.593267058346672926e-02
-6.136955238071356566e-01
-7.261658809236544165e-01
1.867322522235913551e-01
-1.035482937522745894e+00
9.551217872895243488e-01
3.926818397527904736e-01
-7.049502197778850787e-01
7.642718351668511545e-01
-6.680844120793343333e-01
-3.884375425201012089e-01
-4.141783186799842253e-01
-8.513962510423997987e-01
1.971440288389333384e-01
5.378438143224137935e-01
2.248076588529839825e-01
-6.639439766713759461e-01
-4.796412337772948398e-02
4.469602154823223428e-01
-5.474276253690953942e-01
5.982469268791738848e-02
-1.186863532195384374e-01
-2.055989446109651730e-02
-6.194413258355280227e-02
-5.176977414923646936e-01
4.093158217174874269e-01
-9.963213017700437435e-01
-3.551768311676006817e-02
7.349509689620864483e-03
2.308229671691413576e-01
-6.939314484907994629e-01
-1.334433567157057021e-01
1.091559821754562731e-01
1.831102023134351109e-01
5.775941801143318344e-01
1.009017650027905999e+00
-4.250572658903413736e-01
4.311061543569891796e-01
3.835355425761032278e-01
-6.298745320039462747e-01
-9.643989603398581689e-01
-9.562850141714116514e-01
8.401618071486547379e-01
6.331210556066054762e-01
1.914942455329885773e-01
3.593309117114822371e-01
-1.945496310432133502e-02
5.354205030636314255e-01
1.115433416834062941e-01
-6.230116123570142994e-01
6.789752989605938316e-01
2.453948228211744187e-01
-3.152851726605496729e-01
-9.377440188963970247e-01
-8.201866434032742958e-01
-9.573818769567079556e-01
1.112042574875340140e-01
-9.225647619207317796e-01
2.516560528375116901e-01
-8.669905964620916450e-01
9.896315606812211563e-02
-7.241324770234922603e-01
-1.641997683928808627e-01
-4.269177646128481385e-01
6.255831795154269681e-01
-5.697749222084598220e-01
9.266653937293598542e-01
9.261955368529900534e-01
-1.000227647452660795e+00
9.882976929007347699e-01
7.637030550915806515e-01
4.324835857236613568e-01
3.795082306081476453e-02
-8.820189306100487681e-01
-5.734371960750181962e-01
-3.178423524628304353e-01
1.572432248807557054e-01
-6.174568741201810762e-02
-7.345021734184986606e-01
-5.437540623133964024e-01
-9.068745043870326539e-01
4.099088650893725205e-01
4.332911786845088375e-01
7.689182561283863793e-01
1.130499840008719337e-01
6.376444074302128895e-01
-6.707039543213648425e-02
-9.512685874050846868e-01
9.884410658855939946e-01
-5.089399300403851800e-01
2.172129238350635205e-01
-1.797803237241548668e-01
-4.513029574801406540e-01
3.044370889303593120e-01
-5.106450811491288766e-01
6.385300814732892960e-02
2.619177682713452193e-01
7.338913437874023948e-01
9.586698035400637030e-01
6.789110893852187689e-02
-5.881334952361931823e-01
1.696803732084644634e-01
-6.985741973687683570e-01
4.141846463774357945e-01
-1.003924481464212981e+00
-8.105365566004052447e-01
-4.870359012905793317e-01
8.692266845111514817e-01
-5.580574489552394546e-01
2.000102440169467255e-01
1.874792398950836381e-02
-6.811736828413280653e-01
-8.722941599072285834e-01
-6.507958051523123899e-01
-8.221031533597165097e-01
-6.566743286726122175e-01
3.677850817260774896e-01
4.895832755371443135e-01
-1.214476504017736741e-01
5.706658654710818901e-01
3.471307777122467630e-01
-4.335501634454901887e-01
-8.519235778131128978e-01
2.055105570649148894e-01
-1.114414473125460436e-01
-2.779000468643991195e-01
-5.146326829802310154e-01
7.586189698377837631e-02
8.763159505603297372e-01
3.503738785848802273e-01
-2.086250017172013027e-01
-7.964607792035781619e-01
9.692870554914762016e-02
3.762243068692678882e-01
-3.665334983016008685e-01
-6.366557520641040746e-01
6.366785252704381115e-01
-8.118324629825287575e-01
8.057417997456347569e-01
4.818490046515260805e-01
7.617546136742200935e-02
6.831744044063332577e-01
-8.667485052079151320e-01
-6.432376879099171996e-03
6.078876692408494709e-01
9.710171052563532079e-02
-1.081355263883825996e-01
4.650160138070249527e-01
-5.098839058182125239e-01
-3.658633588304044948e-01
1.697142905053943274e-01
-9.262311924012843756e-01
-1.542664630507170342e-01
2.665404681985510948e-01
5.932527921434588292e-01
4.894799085339710532e-01
8.631497114860906539e-01
-7.494293901640974864e-01
6.913207968247541135e-01
1.806040576892099514e-01
8.707958329043978818e-01
-5.211189926669713701e-01
-2.898629180842282604e-01
8.863201146792575313e-01
-8.378568199322312671e-01
-7.180686165032359458e-01
-3.261706309979570673e-01
1.528358137266885297e-01
-8.778209416659155107e-01
-4.705113681486310373e-01
-7.738083940403535088e-01
4.622050402662830071e-01
-9.451367191687405356e-01
-3.759623113503183234e-01
4.341360448983973552e-01
1.556158071992298220e-01
9.340002853239117719e-01
-9.391081968826299198e-01
3.558738805341442601e-01
3.980291614721417348e-01
4.661620933360397512e-01
-2.472619347836547965e-01
7.890882288641349884e-01
-6.351673082485467248e-01
1.595621572649421616e-01
9.585684798253873984e-01
3.596268743289333936e-02
-2.854469762995927029e-01
-2.810377957369261104e-01
5.584876934415149430e-01
3.640542735667822161e-01
8.137759253555344463e-01
2.578872726016600003e-01
7.954452183450022584e-01
6.092514546643666984e-01
9.856625836669126173e-01
-6.811668322519597030e-02
-1.019149911313264933e+00
2.396364817356531340e-01
6.317830224706804110e-01
9.540165506402823459e-01
-6.868824376431234002e-01
5.554656394575017142e-01
-7.461172163519171896e-01
1.783780018382459254e-01
9.139740682833328300e-01
-3.613846043187513013e-02
-7.540037871396755298e-01
-1.773699409207371847e-01
-5.117619289236108315e-01
4.432031167572223485e-01
4.726968445426681376e-01
-4.062404615794609763e-01
-9.997071858063353300e-01
8.066190060200277845e-01
2.126367966507114460e-03
-5.295202625977259991e-01
-2.747448964144472150e-02
3.645361242450605166e-02
7.334703618869908848e-01
8.609145543763738750e-01
-6.484318047802233309e-01
5.345205461506497002e-02
5.394762244761936998e-01
-6.407291648182373844e-01
-4.185284727892848444e-01
-6.353582970052842338e-01
-9.109352434345452387e-02
3.526835339903217625e-01
-5.637389611395171585e-01
-9.308803828891770715e-01
-9.263902365144831563e-01
-5.970479364059202432e-01
-7.286212743964590732e-01
8.686975390675782949e-01
-1.701350321792820530e-01
-4.910473905053551746e-01
1.352426300620155342e-01
-7.840165710789337439e-02
8.969969711789487210e-01
6.221490321478573282e-01
4.462937107133624348e-01
4.901425353893753556e-01
-6.797954613857719597e-01
-5.038501996786830528e-01
4.371005326981542982e-01
-5.619060114975168996e-02
9.675970055947316073e-01
5.437280775412558498e-01
4.132070098552871329e-01
-9.899946996383121034e-01
-3.230950673373482740e-01
-4.753649936349362282e-01
8.968017757576380866e-01
3.577563065680224863e-01
2.165438821637263866e-01
-5.597515596931091908e-01
-4.412842604700555338e-01
4.350170561253809964e-01
-7.357600221812532482e-02
3.184269174693543092e-01
-3.742937390797916875e-01
9.347084377945811262e-01
1.616363230523216732e-01
-6.693064857402623025e-01
7.532350771850354620e-01
-9.760354450740771348e-02
5.685669807555375765e-01
1.332561580669246459e-01
3.767243481997122334e-01
-7.393625689191268835e-02
-1.009867986111437022e+00
-2.526490186568337848e-02
-6.434058403569646867e-01
3.552051742918957977e-01
-9.989623377833827256e-01
6.876552960394999303e-02
-1.631864654522472424e-01
-8.216454102457448894e-01
2.669872047661774883e-01
-5.631049403991665592e-02
3.545504770763368008e-01
-7.056315760687021932e-01
-3.387169581273035135e-01
6.753038239150386257e-01
9.892164996007219990e-01
-5.212971820619889396e-01
6.277920110497756667e-01
-6.148086018435866551e-01
-4.541101474725054432e-01
6.986360293357862794e-01
6.755711473269708778e-01
-4.069395656181549192e-01
-9.425426664402797305e-01
1.087299687378695534e-03
1.925652147423546900e-02
-8.848123294642642467e-01
6.981004080988849336e-02
2.190866503119358599e-01
6.543143548384110497e-01
4.344424922952447310e-02
-4.822577731697861303e-01
-8.252073394994992039e-01
8.356363316876784797e-01
6.020446919852799894e-01
-9.702291992408207388e-02
-9.997954011196674706e-01
3.933876718196723243e-01
-8.136601329074428790e-01
7.616876122438471786e-01
-2.032135264858677404e-01
-7.367543119965516141e-01
-7.967889783339003884e-01
5.547627990361696515e-01
-5.780049454349940330e-01
-7.208149361644773379e-01
-9.110663564045895502e-01
-6.603378189030418843e-01
2.577135791280074084e-01
3.695310330293775092e-01
4.655680282194943898e-01
-1.178795443529238041e-01
2.958091210645275027e-04
2.042964371194866402e-02
-7.269959993365795459e-01
-4.968304839870550937e-01
3.488978612513523592e-01
4.236589004741154740e-01
-1.994286651840926905e-01
6.554466071780702396e-01
8.758814628010702652e-01
-6.180539961349845735e-03
-8.316832873230900480e-01
-5.433663386535175777e-01
-9.317562182785761316e-01
-3.900605668834653539e-01
2.557710658384368396e-02
5.698442062797426377e-01
1.460033219780166869e-01
1.148497608578533113e-02
6.163666282995683421e-01
9.107715582451845204e-01
-4.024761880165983463e-02
-7.233509359352693346e-01
8.767066799983926906e-01
-8.455711022292951018e-01
1.230794088470488906e-01
2.058779559442640572e-01
-5.925561922399080750e-01
-2.678808995119470460e-01
-6.824057937516379013e-01
1.347716682933146337e-02
6.647734054829028683e-01
-7.607990874721312635e-02
2.425949426794884456e-01
9.418277425394361302e-02
9.631369684891809557e-01
-1.168372363090996180e-01
-7.706031726940214543e-01
-6.961494666246430540e-01
9.976700384824106482e-01
-3.671589441069031956e-01
1.049260746113995557e+00
-9.973051304332840594e-01
8.635237907234120935e-02
8.859472068276428303e-01
-7.813329446926380317e-01
4.638275624076497461e-02
-3.935829006168074518e-01
-2.728074873972403669e-01
2.072868008129819806e-01
3.000157004892070045e-01
9.332231966516787436e-01
9.322515957225627758e-01
6.399427555421111080e-01
-4.524787583055137064e-02
-5.393280829591523551e-01
4.686398723651583054e-01
4.437260117523489367e-01
-7.991355107170754479e-01
-2.029818604560218454e-02
-1.759433968056591802e-01
-6.595663157533158127e-01
4.905223425812921256e-01
8.579503728359028081e-02
-4.378142699420388695e-01
-3.834512468286626619e-01
7.299136283788851820e-01
6.085345513792947969e-01
-4.672804434995639355e-01
-4.734720681393267405e-01
5.967447031785273470e-01
-9.742772325524029498e-02
-7.464711961484828961e-01
2.276865264601604655e-02
-7.988949478360293233e-01
4.714102173927866568e-01
4.712323562310514191e-01
-8.043781078214180535e-01
-6.792029605437428508e-01
-5.514920986818422355e-01
-7.306718666065332712e-01
2.197684000216615363e-01
-9.049170378235451562e-01
-2.994209172295236865e-01
-8.041314453077221813e-01
-6.980760484621310047e-01
-8.103837696490115983e-01
-5.309347539574029717e-01
4.722384846706880190e-01
-7.694878312363389039e-01
-3.211631640049001923e-01
-2.398588787453579396e-01
-1.079873914618290076e-01
8.504397618644606027e-02
-8.091106309830349286e-01
-8.999951934489024419e-01
8.897737119943530670e-01
7.939687060142227581e-01
-1.271802247768892558e-01
7.369245269344041338e-01
1.060102751034720653e-01
8.780902648315052073e-01
-6.346551947924755632e-01
-9.050374686615758613e-02
7.576696756938487987e-01
-7.222088904598090719e-01
