-3.101762802573291289e-01
-6.601935755822225804e-01
-2.766164650282618709e-01
4.615827983314513272e-01
-7.580624742411776751e-01
7.978277402019438025e-01
7.051765261818709885e-01
6.297712370103598634e-01
7.670124462260770049e-01
9.591767434634821399e-01
4.750723122396196541e-01
7.892844483737755379e-01
-4.614586674477172412e-01
5.807417510528010141e-01
6.651186263557085088e-01
-5.441725723944195181e-01
3.946237460700585675e-01
-8.610309770470174762e-01
7.001764959589662496e-01
-8.692449502822696683e-01
-7.714732148033200954e-01
1.498117856272238591e-01
3.745506196882082417e-01
-6.880672551933901815e-01
6.890733796556316459e-01
1.040809777099385158e-01
-4.891094615025817216e-01
5.664838242234109256e-01
-6.680546220879421959e-01
-9.803017842058199260e-01
-7.936411093837165698e-01
-6.293728794824322570e-01
5.636235786477383769e-01
8.892661157311065878e-01
-7.693704056271615244e-01
-1.910704085721997014e-01
-3.099376750966744698e-01
-1.002511006120092585e-01
5.745236924950758439e-01
5.901053975496179937e-01
2.342810285125263015e-01
-7.307423199997160612e-01
6.086819759006341091e-01
3.571966824873824553e-01
3.770757033027976046e-01
5.277991680038174316e-01
-7.353205309520331745e-02
3.183765485059208977e-02
-9.843373855666071037e-02
-9.142553727963944610e-01
-8.774763153618025946e-02
5.369139076741216154e-01
2.251419530149187942e-01
6.984322432286964588e-01
4.388801860829945056e-01
4.121543243867160644e-01
-3.498526519051941008e-01
8.333087005609876030e-01
5.514397980687488765e-01
3.434675567455118816e-01
5.463933319735065908e-01
1.709981875936312790e-01
2.158339851396342546e-01
1.217681040359428479e-01
2.621517930863361823e-01
6.705480854198329066e-01
-4.355598823942083975e-01
-9.504601392390814585e-01
7.819499231089617197e-01
-3.648375974112614273e-01
7.635529745381364197e-01
-8.365330916951252416e-01
2.668979021702304610e-01
-8.041511112077730505e-01
8.025743688251123498e-01
-1.744418781170742339e-01
-6.536094896074926552e-01
4.133618149803512942e-01
3.572740678479954246e-01
3.993102064796869577e-01
-1.523293965184981946e-01
8.124033972747746191e-03
-8.674327976374351934e-01
2.558674816185133594e-01
9.482034935812921894e-01
5.871883033943705588e-01
-5.243680347233117267e-01
6.275418972933839434e-01
2.923950732060505153e-01
-3.744345155658652946e-02
7.440451297643266848e-01
8.627570410662419587e-01
-6.205481247480182372e-01
8.530614420550148846e-01
9.796193203779617331e-01
-9.539178370545831065e-01
-7.389518028288257767e-01
4.381722492811659375e-01
2.202953269355145127e-01
3.397588565225544421e-01
9.219757717835286304e-01
3.672139086430517008e-01
8.802523736481360217e-02
-2.117509352759867625e-01
-7.654618417672824915e-01
4.501370314292155173e-01
-6.542806841572026411e-01
-8.754744699558485443e-01
-4.467410548174592932e-01
-1.169690891563337498e-01
-7.728757705498505715e-01
7.608997034105640100e-01
-3.917736784138377004e-01
8.034840211583167413e-01
3.185045604825731402e-01
7.753267870822899699e-01
1.733068384319638167e-01
5.834533608918472947e-01
3.020821190739171325e-01
-3.024211840261967210e-01
3.658609584141854221e-01
-7.609387666621347801e-01
9.697742143418108807e-01
4.901906609508355217e-02
-6.396153590421516100e-02
-7.865545673086995482e-01
8.717186327614985242e-01
-4.192937522390558502e-01
-3.815814591994495242e-01
5.818208829290756334e-01
-2.412793234637182760e-01
-3.194362082407993242e-01
4.028950390537640036e-01
-3.497592350306877318e-01
-1.835344343285443269e-01
8.163210049309512772e-01
-5.548504625802777035e-01
1.286162486014381656e-01
8.510664622424286563e-01
-7.150515696501074103e-01
4.648713581498358227e-01
1.853582527021275794e-01
-2.513308176450759213e-01
-6.997693515036476075e-01
-2.754582259070268435e-01
-1.262862717851807037e-01
-8.420583126104355109e-01
-4.901841384390279721e-01
8.638411981133986561e-01
-4.089210038405344250e-03
3.876734173281475293e-01
-3.386145962538478216e-01
1.951559462673424505e-01
1.379501198717318911e-01
-1.536998259894939434e-01
-4.958070273919641391e-01
6.799207628323333807e-02
5.891050004464730705e-01
2.630040325910705246e-01
-2.981847058132707229e-01
3.208852914090636332e-01
2.358698453320868804e-01
5.927068860511235382e-01
-3.478867394264129054e-02
1.666069421426152886e-01
-9.358538337787170036e-01
2.391881951487950797e-01
4.111607089731499354e-01
-7.752946841796404254e-01
-7.653045694474402971e-01
-5.961300585983890787e-01
6.537583165092453186e-01
9.778591838700496641e-01
1.604975378730388869e-01
3.888874953037444460e-01
-7.330529473332647594e-01
-4.504365426104774972e-01
-9.145261908444151100e-01
-1.037782446966819538e-01
6.137966379119059734e-01
-4.650698664062367094e-01
-1.303876164891681899e-01
7.621834037709389609e-01
-3.171400111115645348e-01
-4.444330209540856558e-01
8.972573121336140378e-01
-8.784565402315664961e-01
-3.735403286773726350e-01
-9.218876227069130458e-01
8.631626466376394191e-01
9.882779833564918626e-01
-3.767184366566873610e-01
-3.436122268371573085e-01
5.319599244592740916e-01
8.736306420050314880e-01
-5.741157779886514323e-01
4.243156310920384033e-01
-9.492785803126764232e-01
1.413924739842031819e-02
-7.661418466841896091e-02
-9.525192942286668796e-01
-4.479353347426611176e-01
-1.354530041352508540e-02
7.996278684716313645e-01
-8.149131098339468249e-01
8.116557170562566093e-02
6.904604050573024399e-01
-9.332486391693446404e-01
-5.960236084716676874e-01
-8.568207050180975948e-02
-9.484047589650603793e-01
2.211904893715668230e-01
-8.115028118605862595e-01
6.219212219490324323e-01
-5.949416291903872889e-01
8.607447174519735622e-01
8.885113347980071463e-01
-9.266109214629008051e-01
-5.982473954300870922e-02
-3.537176587809280903e-01
6.881383251100419152e-01
-7.748515064277488040e-01
4.438250521010222993e-01
-9.385655169658502217e-01
-3.831230179778299938e-01
-2.786930719566644843e-01
-1.746318774753583547e-01
-6.481277780429184343e-01
-8.096118014171642674e-01
-1.385111092933384302e-01
-1.968915618188560313e-01
7.537811653826764768e-02
8.005719967130102699e-01
7.297768782139932853e-01
2.999349572391543095e-01
5.091144607805597744e-02
-2.950133496012521395e-01
-2.742382808752130696e-01
-9.293040684725228928e-01
7.490018547251926506e-01
9.239800874700516697e-01
-6.632743275095753788e-02
2.855796446798735122e-01
-5.367420456547964402e-01
-8.601304168972734310e-02
5.272819744960064448e-01
-6.813800353070014193e-01
-3.420185878673744906e-01
-6.884233538350836845e-02
8.666397695651473221e-02
-5.978603681826482052e-01
8.770699329242928055e-01
-9.162432032188834174e-01
4.830752947364986838e-01
-3.297001662179395165e-01
-2.769362634290908343e-01
6.586455625268230474e-01
7.065887936890951071e-01
3.448035678053082975e-01
-2.777340358478674887e-01
-5.252496227885723457e-01
6.940457082016115997e-02
3.837509022013749771e-01
-2.918525611965594457e-01
7.250765519908946022e-01
-5.318236978917112445e-02
3.289830282807553186e-01
-4.211049641282413880e-01
9.041425122525919011e-01
8.483351123789120152e-01
-5.045831559137357036e-01
7.035980285862293293e-01
-6.533283531033509117e-01
-5.767437526982397422e-01
-8.604547804571831549e-01
-8.717823357463718725e-01
1.685793017762846624e-01
-1.525562474757588272e-01
-6.544321663730057193e-01
6.822849012389147205e-01
8.897372975431954156e-01
7.565068196090948827e-02
-6.431749122227334858e-01
7.615037910280693101e-01
3.562254827330446627e-01
-6.279332685728362673e-01
-3.456318432487019976e-01
6.899533453316326614e-01
6.976448462766482450e-02
-1.383399303860146645e-01
4.058890337934975001e-01
3.837711391033316044e-01
6.682286182326602209e-02
-9.626032297810160898e-01
6.663515519962204259e-02
8.748963703910561662e-02
-7.024277698392746849e-01
2.165909935091849814e-01
-1.844776629970792392e-01
-2.791112084409785865e-02
9.587625789304414781e-01
-6.770485959558643074e-01
-4.332511842927966317e-01
-7.362685783798961214e-01
9.253476942423064511e-01
6.995556288910178555e-01
2.873975117389060419e-01
7.239861874113233675e-01
-7.418847357866225067e-01
6.398065373247792120e-01
9.483946488893346682e-02
8.306462501610385463e-01
-6.854709645514043270e-01
-5.727315433180473203e-01
-5.974764289876204337e-01
2.226784582464451656e-01
7.684248508669753175e-01
-3.305842825712386190e-01
2.665083056110495452e-01
-2.153631331126768522e-01
-6.455096357636824767e-01
6.059122782104695570e-01
-4.820240364316474846e-01
-4.769070353325823852e-01
5.625158655284721032e-01
-4.338225742524424167e-01
-7.067563554165932072e-01
-5.198098825723687089e-01
-4.551162571519513644e-01
5.735332379094002508e-01
4.806227677143537491e-01
-2.890618347870486105e-01
1.066384668138322667e-01
4.106687976207723523e-01
-2.880367155552950309e-01
-1.495417674061287894e-01
5.290363525423944502e-01
6.672142273595830231e-01
-5.236705642486532142e-01
7.281860360867030701e-01
-1.783190507845229256e-01
8.939215943589793323e-01
8.576287153477701874e-01
5.469667021136925822e-01
-8.147700629846783560e-01
-2.591850613126944758e-01
9.436350690561631227e-01
5.520158204234848487e-01
-7.229432732154585928e-01
-2.760912036608462738e-01
-8.515681449557450655e-01
4.588658894044175263e-01
1.502882648451582259e-01
3.296113173685277786e-01
4.981955954086572103e-01
-3.081561675564794545e-01
-9.408189976247895991e-01
-7.723327076196895291e-01
6.379282681136140276e-01
-5.663668140811983776e-01
-7.161833754181835543e-01
1.997651402905746276e-01
-3.573755451632363300e-01
-6.127131414492765771e-01
-6.194674335405234711e-01
8.880242572095964348e-02
7.605004149667828894e-01
-6.006709042920752584e-01
4.831691736628418443e-01
-9.093927297218853401e-01
1.984064183586609076e-01
-2.293154101616099450e-01
-7.041814218595741082e-01
5.216570114498906285e-01
-9.018028733362366545e-01
-7.671113165206764339e-01
-7.993535786678755972e-01
-9.161514030660777852e-01
8.209134614759812099e-01
-4.447354791179940481e-01
3.894830520931498175e-01
-7.092949005054995926e-01
-8.874546625218699969e-01
-5.618207213495276520e-01
8.958965831497953669e-01
3.421477331518851805e-02
-3.246091927295085000e-01
9.467992058446115244e-01
-1.944849686697833757e-01
7.683114350686892635e-02
-6.731095105148374724e-01
-1.882875155941152734e-01
6.830577027914614963e-01
9.865297722576631401e-01
-9.511169710046378512e-02
-3.207496156984310787e-01
1.096449466065454459e-01
3.483565471697471772e-01
-9.071936624473651012e-01
6.588870900777026307e-01
-6.771385771983127189e-01
-5.653238347033830991e-01
7.828462721760276466e-01
-5.608378362623476221e-01
3.405907931339648975e-01
-5.156316079859268875e-01
-9.336196752620760098e-01
-6.499543858448122435e-01
-6.896268453894529582e-01
-3.699149144279507695e-01
-8.579156081697607572e-01
3.797758164996019037e-01
2.026393343918639345e-01
3.683078154865873088e-01
-5.199343410949763822e-02
5.173468898091728718e-01
2.061295706717596321e-01
4.829394575567969028e-02
-4.103353523049593221e-01
-8.869917537619631531e-01
-6.884706136974687585e-01
-8.524283068647082739e-01
-5.397406649776212983e-01
-2.391741613762783381e-01
4.586206983935199322e-01
8.093892308945604963e-01
-4.205672436338181441e-02
6.372676609021607486e-02
