6.377252901463403845e-03
-1.755195657540442600e-01
8.767921675596606068e-01
6.590194473687072119e-02
6.882121407382923994e-02
-3.978340549081855748e-01
7.680533447834199112e-01
-8.046155862183521634e-01
3.917796158025976805e-01
-6.194494864233284215e-01
-6.925763060158218742e-01
-1.337712484600719343e-01
-7.247866522893018359e-01
-2.971235818951871721e-01
9.230088124306790043e-01
-7.709411591782167061e-01
-5.602796775805907181e-01
-2.479484991458442700e-01
3.531937721092925919e-01
-6.110167136898285722e-01
-8.040012653989361269e-01
6.341886326068602031e-01
-6.646236399235707637e-01
-1.153393636735231542e-01
-8.624879439211381449e-01
8.747109822456800021e-01
-5.873125073629361648e-01
-1.784229876086282918e-01
8.041629148826465734e-01
-1.545316157881353458e-01
8.106143264959739803e-01
-1.477572937228932570e-01
-6.470784262021105349e-01
4.567928928328324201e-01
2.101438674337383627e-01
1.586468235817073413e-02
3.334403381776451791e-01
7.513283192559132573e-01
-1.412226460229561997e-01
-8.442823730550768069e-01
7.642298089815031670e-01
-2.718682752406234027e-01
-3.185008748014030999e-01
8.620564896508078334e-01
-1.724592120983503563e-02
-9.557097639052105631e-01
-1.024446577334876762e+00
3.934303186419445542e-01
2.229409103092989675e-01
9.237557801134668178e-01
-5.467944104559485652e-02
8.504198140501277869e-01
-3.252189382126613459e-01
-2.995154974294003125e-01
-3.472443423907367599e-01
1.081495925825408239e-01
2.966752180244549564e-01
-5.245477478609024136e-01
6.402287421656813748e-01
7.029547575104189150e-02
4.573158498201363997e-01
7.208366844339517687e-01
-9.246531376711457639e-01
5.727521724715369800e-01
-2.042734283999643186e-01
-6.191345181085683436e-01
-1.203200360181506667e-01
-8.632208898369804206e-01
4.237806703560376143e-01
-8.082238020231120590e-01
2.556316168232892760e-01
-9.253154739463742562e-01
-6.545294687944953615e-01
-4.693286820129285442e-01
-4.936530325087393756e-01
1.852206649872036315e-01
-9.238769762768749283e-01
-6.262783677890337852e-01
-7.256616746898636450e-01
3.592380665169185860e-01
-1.016784541371760220e-01
-7.105745723486840415e-01
-2.597687457698532043e-01
4.127952431046699733e-01
6.479829073851384180e-01
-4.841694586064742012e-01
6.435208006382917567e-01
-8.376852496766873379e-02
-4.289324099940095003e-01
-8.821954472164648120e-01
8.687847309157368247e-01
9.548882561714828743e-01
-7.781247478719657273e-01
4.114403018683747693e-01
1.648243643390447932e-01
-9.124625812774842526e-01
7.634859249552765625e-01
-9.632972627777180996e-01
-9.265041784929621826e-01
1.526995928346899234e-01
-2.375574707584455769e-01
-4.309098494393783785e-01
4.979020666200975609e-01
1.263922946116369239e-01
9.267979284331955281e-01
4.820712784789007443e-01
1.116976178631625682e-01
-8.123762820443611865e-01
-5.119960560728658017e-01
-6.993488940498933104e-01
3.543710906329309296e-01
3.772488846659500794e-01
9.984206178871088966e-01
1.895089652142742942e-01
8.169731595065676810e-01
9.735077886642211631e-01
-5.131177922324030583e-01
6.865839231902775008e-01
-9.393296070271361931e-01
-4.471585957969148595e-03
6.866151374801721108e-01
-2.571072559765497090e-02
7.146370607804763964e-01
3.662511081238453148e-01
-3.163794452718130534e-01
-5.660306747656060899e-01
-2.914089898421201585e-01
9.173553656642920995e-01
2.877983213280499442e-01
5.149143145318184622e-01
6.207390465917917988e-01
1.089452448075174384e-01
8.305821211503250368e-02
-2.989531894061716599e-01
6.320076958772746778e-02
9.186980829110640290e-01
5.560845200097128682e-01
-6.568442081378813580e-01
-9.049545577138983221e-01
3.517657428539577857e-01
2.768459942427906051e-01
8.258081499809730719e-01
5.618192362331360101e-01
-2.789487372003769394e-01
-6.848150342867582729e-01
-1.267671917116282021e-01
-8.056763223978913313e-01
-4.719331631555532258e-01
-2.521125057833328853e-02
-5.483466932900593616e-01
4.351280853687025107e-01
6.544750559465273287e-01
1.498154267490314773e-02
-7.961965525337939553e-01
-7.004233198399900662e-01
-4.446101468379397570e-01
7.288793226843033324e-01
-5.637943111153833620e-01
4.209830975761412741e-01
1.478227877719171524e-01
-8.361234814118339020e-01
-6.732167575062497633e-02
-1.014676595415568983e-01
-7.794713091047869025e-01
-6.805401370926935645e-01
-6.988913875056443903e-01
-4.643200190345024847e-01
-8.226850057032093488e-01
6.547048230839928040e-01
5.456060761443264351e-01
5.942115592739234398e-01
-2.529575653599944740e-01
-2.167596074048636634e-01
-1.343837106541205806e-01
-4.952543001455955718e-02
-4.321197536812926288e-01
7.237050633648735021e-01
-1.937269148367750660e-01
-3.641876299316808563e-01
5.343748763805040713e-01
3.639255926921658446e-01
9.154848511663525867e-01
1.907690151735401685e-01
-3.828384171422518634e-01
6.634705569868184494e-01
8.416178358385080216e-01
-6.915814898354064599e-01
-9.702021799624116483e-01
7.944124434303334592e-01
2.864626986085487825e-01
-8.636887201613833165e-01
8.832199374418157056e-01
-7.325392984842240551e-01
-4.578740469868656238e-01
4.062413127089432585e-01
9.691601867797237091e-01
-5.061319669311896696e-01
4.821444879351113322e-01
-2.829227420264490700e-01
-5.074778684779879256e-01
2.632350806836232238e-01
3.341655253254225411e-01
-9.423449401376564616e-01
-1.492411939330904325e-01
2.885736559483476071e-02
-3.641641686674788048e-01
-3.771430471543721907e-01
4.023029029580418303e-01
-9.873568368467577905e-01
3.115041765912913707e-01
7.020705987908844037e-01
-3.562705268283543614e-01
4.893339414141752997e-01
5.282466593325252369e-02
-9.611549947485291678e-01
3.938653735723798843e-01
9.080112439465828356e-01
-2.419952904858573561e-01
-7.704932378816740091e-01
-1.682575690186622897e-01
-8.668362077638898100e-01
6.496212397783995840e-02
3.911014642464136215e-01
3.791220085804569706e-01
4.554596123855536582e-01
-7.840572481115855030e-01
-2.356784310751733891e-01
-4.302976906799007573e-01
-9.608406186841993435e-01
-7.321282783405240746e-01
6.923442266947494872e-01
6.590617896590276192e-01
2.286341791812620539e-01
-7.803231743749923233e-01
3.165203981583069037e-01
3.280916524368862053e-01
3.181969455383892864e-01
7.072251436360730281e-01
-9.726681692705341220e-02
1.872106568943285865e-01
-8.303571314697675287e-01
-2.342609943817361984e-01
8.044029088668456229e-01
-7.379750848029755783e-01
9.782457440354166422e-01
-7.508097143558229991e-01
-4.262121337588433700e-01
-2.609141568544017797e-01
-1.079232583059168693e-01
1.422647736730248968e-01
-6.762856449052521146e-01
-8.777934420898625412e-01
-8.935550919054446872e-02
1.387228773042799013e-01
-6.436962207717631390e-01
-4.918286736250379043e-01
5.093249452023111967e-01
9.433712329150900633e-01
-1.414733242375149080e-01
6.954306867432458183e-01
8.461437993531681911e-01
6.430526233163003091e-01
9.709424212180245428e-01
-4.350949532112162732e-01
-3.981607572432770414e-01
5.394423142679567462e-01
7.885555272212101396e-01
-5.305998874161166334e-02
7.253631759761660636e-01
-8.568898464145227045e-01
6.003216038936871612e-01
-4.892550941793882835e-02
8.009629464446950120e-01
2.955956831952784025e-01
-6.682503770430674450e-01
-2.881037137904010059e-01
-5.506783111764617100e-01
3.984864349882748236e-02
6.864796299109676703e-02
7.908121209956697761e-01
2.951542347494637841e-01
-8.727134711793040900e-01
-1.892737346259478759e-01
-4.106432157588377763e-01
-4.218726507875678600e-01
-7.176771750714525666e-01
-5.489190240714707514e-01
-4.020307503755818912e-01
6.865451691870818607e-01
-6.182264682546434464e-02
8.142786164061315279e-01
-4.328712040011726270e-01
5.365657651679811568e-01
8.923197472699784250e-02
-5.933557410379188823e-01
-2.382445965326301651e-01
-9.543670036944140733e-02
6.460529440164775039e-01
5.616350234098135275e-01
-6.159128868870595852e-01
-3.201723597381223030e-01
2.825837456359242550e-02
5.335890565907011052e-01
8.926919426378778777e-01
-7.257331537501299223e-01
2.632038584740809539e-01
-7.882305524351513881e-01
1.058908211244402597e-01
-4.047701595245758455e-01
1.487188450607952461e-01
3.384220313273857972e-01
-5.411017457446538614e-01
4.211016541071055386e-01
7.797645239146617779e-01
5.455266740625046573e-01
5.754194195855952820e-01
-5.677213849649469513e-01
-5.693294361363829825e-01
9.483243352105001911e-01
7.767567683284659630e-02
-7.541997605996655363e-01
-9.958715262640156496e-01
-3.818109205655966232e-01
6.768538729998723191e-01
2.663290316740769548e-01
-5.653467612276072973e-01
6.841903442379384526e-01
4.542941120699053315e-01
-5.361842962742242591e-01
-3.832726869920228818e-01
2.506801294245852851e-02
4.323725785428682578e-01
4.805445743550911253e-01
1.770869662740441886e-01
-1.104190372928504082e-01
3.020402196311076093e-01
3.577842671606279445e-02
2.302765512415843041e-01
-8.077751771718163498e-01
1.379362715483583024e-01
-9.167393809011925576e-02
-1.120212639749771089e-01
-9.411752173619662987e-01
-3.650019547773024620e-01
8.526391479737624457e-02
-3.538481393317876034e-01
8.981893362359909538e-01
2.135735545278676373e-01
-9.198813995917267672e-01
7.584045294456394082e-01
7.806926649923169315e-01
-1.581176960824479671e-01
-2.725952971361929045e-01
-8.807583815053907639e-01
8.813027898182346220e-02
3.701710207109452089e-01
2.009960591016213272e-01
5.562986420239224294e-02
3.247626609468805547e-01
-7.345357239956715745e-01
1.793979180009852570e-02
-8.459534437395668238e-01
9.565862161390512597e-01
-7.458258184190487139e-01
1.286794761320588787e-01
7.945635050651191911e-01
9.009599320508487885e-02
-8.214546848767272369e-01
-2.299585263716255046e-01
2.849454217931679523e-01
6.519360552163951938e-01
-5.631478083239433996e-01
7.818327009243470904e-01
9.858120209467611250e-01
-7.590227519938441691e-01
8.953136951970808166e-01
8.396006255625110271e-02
5.986653888896231734e-01
9.797062588583156373e-01
-6.089826896067214168e-01
8.040971772964533582e-01
-4.858814056855065289e-02
-1.389046300867002870e-03
-4.551442820577975557e-01
-3.173509801516294360e-02
-2.111558173233607505e-02
3.183563599511904929e-01
1.466979828131709240e-02
9.926098198786845739e-01
-7.476456365997108389e-01
-9.964449108852710957e-01
-9.428509198829890803e-01
-4.314906413160328746e-01
-7.089136769988528819e-01
2.729803179075493968e-01
-5.876099478091660888e-01
3.646550400331449726e-01
-8.224236762073744433e-01
-6.360948374715049702e-01
6.014782688691446833e-01
8.615432092577375300e-01
8.835143214682991131e-01
-4.955984283410895808e-01
-1.217894054720802810e-01
-2.930510464433533357e-01
-2.580378702727823548e-01
-2.813933407675781595e-01
-2.332960584881029198e-01
-8.943191633806044649e-01
-5.712767378827154907e-02
8.640606498810103897e-01
-5.141430159730726590e-01
4.249398689955370401e-01
3.968654659304857724e-01
7.938618746860282016e-01
1.733579264879223647e-01
-5.350126227712233007e-01
4.638424027505361202e-01
-1.668309254089339611e-01
6.494319503851683217e-01
3.255272878696533478e-01
1.864030984302300631e-01
-8.401364104005137889e-02
-7.082892261504027953e-01
5.292929922960883937e-01
-1.819283699318312575e-01
-8.979581958209699177e-01
2.741211001145194004e-01
