9.676449066422405654e-01
-2.782178362933089844e-01
8.652777641601391290e-01
-7.470304567933885864e-02
-2.258904838559230299e-01
-3.276411185707576168e-01
-3.263897516015418221e-01
2.985754816033594494e-01
-9.237132670702601356e-01
8.857503969655522447e-01
6.490843374115844444e-01
-9.177721888585226306e-01
3.071978749764501249e-01
2.092071095850742135e-01
4.525023729997548205e-01
-9.242118996200593406e-01
9.555388424598878494e-01
9.337011102722125866e-01
8.503225617605236764e-02
6.566107951595627767e-01
1.875960560886213990e-01
-2.619210860662710694e-01
-6.189482539740571720e-01
9.440087662358798148e-01
7.520339494308936334e-01
8.061189708603644366e-01
-9.758253254536435328e-01
-5.169445270202683851e-01
-3.330108364204860116e-01
6.542078102639706794e-01
9.709766426090562508e-01
-5.320027752914953112e-01
-5.382189877070040485e-01
-9.639368608391243320e-01
-9.508030441314270220e-01
-9.196931298900365981e-01
1.425880527480865023e-01
1.512264260663462867e-01
5.137936804348974817e-02
1.843969989724647540e-02
6.054792321432362900e-01
-3.036179809977186395e-01
-8.110607422735025551e-01
2.646621318472301976e-01
8.801642324075003021e-01
2.764430426689659104e-01
-7.131685996205794353e-01
-3.942651126625353886e-01
9.011051308795772208e-01
9.120875384122153484e-01
9.308448496606747113e-01
3.338839798802852865e-01
-8.346436211502681335e-01
5.755933878014520833e-01
-4.855280969200521657e-01
3.831890710309413528e-01
5.230070284894856592e-01
4.462467650765042926e-01
-9.877982634573654330e-01
3.345775043263041204e-01
2.894808345449841891e-01
-3.369205137355719692e-01
-7.103093774269737537e-01
7.325781373254309781e-01
7.569244163751758236e-01
-7.381021423809031035e-02
5.771057261940730765e-01
-7.554162545678002605e-01
-1.215193733584229996e-01
-6.748138153989335919e-02
-4.544055340563877277e-01
-9.114013639206199890e-01
2.765223404077052916e-01
-9.254829399042856508e-01
-5.267420125298321043e-01
-3.758549451191628421e-01
2.588032820232111231e-01
-1.452796666035209849e-01
-9.460691193603962823e-01
-7.000821649553743420e-01
9.202652995391558122e-02
1.176483985238314656e-01
-2.807851051256924357e-01
-8.917553206146371370e-01
-8.393264897113617007e-01
-4.748017382790161167e-01
-4.365539303138803451e-01
2.210261014830221526e-01
2.840668144881068891e-01
1.361028524808063356e-01
3.719791760421746751e-01
9.276876400514715293e-01
9.948089961710178120e-01
-8.821339238406304961e-01
-1.960942467254518373e-01
5.874026617023868635e-01
9.738597697608595283e-01
7.677243926887471481e-01
-4.120195345282140487e-01
8.947796898824476042e-01
-7.944254764396041502e-01
5.314893068201946846e-01
-8.973704300774436593e-01
-7.771029488703329324e-01
9.372498770377295507e-01
3.711988563103618688e-01
-4.557234823433953252e-02
1.491154876234994653e-01
2.385754366619113331e-01
-4.912173688531074056e-01
9.168207193410677913e-01
7.818827883569838821e-01
8.766034413955194893e-01
7.651474677795002677e-01
-1.000982166541226626e-01
9.684693546950111642e-01
3.489504052509064813e-01
7.656336193040156335e-01
4.270115548956825435e-01
8.761033884236133495e-01
5.633851019388413928e-01
2.690641983328876385e-01
2.928483564635282477e-01
-2.246712972304178990e-01
2.935698705911236051e-01
-6.954460664937507364e-01
-1.300520796134718715e-01
-2.506389486062987615e-02
9.129760815448622058e-01
7.299949303532686784e-01
-2.181379282729445368e-01
2.230935078852158693e-01
-5.883339606728884563e-01
-7.780258693226131950e-01
4.751105205225216732e-01
-4.518399865733617737e-01
-8.686339339506032875e-01
6.688759750365145251e-01
6.368698314301135532e-01
8.975697982400827613e-01
-7.553168694164840158e-01
-6.812830376206544525e-01
-5.954436575061337056e-01
-7.623895340917923313e-01
3.573121207809111244e-01
-8.197084457541365943e-01
-7.414551292916431446e-01
2.750764688364091271e-01
-5.737720940780319800e-01
-2.703265513018493493e-02
-4.530612464346168711e-01
6.990114719021411904e-01
7.983041874502752044e-01
-4.534407310374692912e-01
-9.387999137206075595e-01
-7.317145657013930382e-01
-1.491490066255127533e-01
8.399404971650319407e-01
-7.512604482023377273e-02
1.359687101387537234e-01
-6.222429529425448358e-01
9.147067287938814850e-01
-8.105189946756201635e-01
-4.719254378538511041e-01
-6.295768347125156872e-01
-8.882777760027713576e-01
-4.725544034091362366e-01
8.321084284559912003e-01
-6.915022379309359035e-01
9.509278104102592000e-01
-8.619480430457664433e-01
1.812001994876185074e-01
2.347207504459365435e-01
6.305386689507519460e-01
7.884260057705836378e-01
-3.174836472987041525e-02
-6.166524739068292016e-01
6.173852414647635900e-01
-1.084929137331953619e-01
-8.318357543430701107e-01
6.490151201520235613e-01
-7.494724700645301052e-01
-7.268791391955080616e-01
4.031854849526126383e-01
1.221251197551453949e-01
8.148293280859315590e-01
6.815662874200316690e-01
-4.671462590541701765e-01
-7.331308510606671103e-01
-9.489288389065984042e-01
-6.638554484051908400e-01
2.614185088599787488e-01
2.389529036301905052e-01
8.842738705104313812e-01
1.779423338218362183e-01
3.047447838208732218e-01
-1.569540077983362369e-01
-5.472165074483813507e-01
3.995036489477312713e-01
2.515056163079907314e-01
4.655750606195760977e-01
9.188539214875863781e-01
4.017915305536214898e-01
-4.678322308415832076e-01
6.771360657263127969e-01
-6.728448998360236910e-01
-4.756454942057415369e-01
9.474106696029322983e-01
-4.696179504315185493e-01
-1.931712796856965841e-01
2.039588424689637858e-01
3.066739167526186804e-01
-6.008175739725032383e-01
8.100591552349567515e-01
3.114483004716188663e-01
-9.369039833901111614e-01
-6.947803336148286046e-01
-6.712201626073195371e-01
1.018481333001553413e+00
-6.236517156254108851e-01
-4.354244645996658836e-01
4.840147380313052916e-01
7.377945463358415168e-02
8.544973014996970484e-01
1.014341343793010219e+00
3.499622140368974232e-01
6.677509108788697301e-01
-5.305439216529983515e-01
-9.208831400866777095e-01
2.360625895768015958e-01
-7.218256826274223048e-01
5.680966825156861244e-01
-8.823925940666099699e-02
4.945158046929032380e-01
9.539322463623345350e-01
5.650794633544218293e-01
3.209267586435182729e-02
9.012435974505919045e-01
-2.410836805019194728e-01
-7.024706684892281228e-01
2.308743209057320112e-01
-8.008220876432057267e-01
-6.616585847083091831e-01
-7.658840036608088875e-01
-9.978752767592571349e-01
-2.345759417907542499e-01
-8.197809566705536177e-01
4.232066368497324760e-01
9.777052327225839168e-01
-8.959976110278922157e-02
8.167252432294849207e-01
8.046415940988529414e-01
-7.334996879122486213e-01
-3.116024058560669108e-01
-9.868768913867123072e-01
-5.101597778594739729e-01
3.706000709304770879e-01
-2.997622081287794060e-01
2.243887559026844780e-01
1.524638454679538846e-02
5.083489400837570837e-01
4.271734177371311336e-01
6.934075082394841605e-01
9.117513366669434127e-01
3.099380682070804749e-01
5.823930492666651304e-01
-1.050694812166437009e+00
1.344444189015359115e-02
1.664634238095747953e-01
5.966477314739138116e-02
3.862384948007773211e-01
6.425670051928107362e-01
2.518550645130002152e-01
-7.882231381606852327e-01
5.253714356678651498e-01
-3.717571427408827844e-01
-8.705009033484902847e-01
2.393942414537857388e-01
-5.595377826798779708e-01
-3.879177560073283626e-01
7.357828289052830151e-01
1.938515400114004805e-01
6.932731396560409820e-02
-1.296066395463892906e-01
-3.899635910168918196e-01
9.726015180884974853e-01
-7.591763799026931547e-01
3.385210864905876527e-01
1.660663151522580594e-01
9.140895379033306956e-01
8.236188474754749800e-01
9.258675894426484643e-01
-8.465539656553368042e-01
4.465137957269202929e-01
3.883808335909453291e-01
-7.399475008498428430e-01
-8.099595104222678810e-01
-7.902844480026003371e-01
-7.429940819919429451e-01
-4.423522100726196005e-01
-2.238449283803072287e-01
3.293229783799074273e-01
8.968826560320684038e-01
6.693851089907942864e-03
1.678341850316162898e-01
4.870878590816931641e-01
6.252165851783200168e-01
3.844633544606048670e-01
7.674057685937984985e-03
8.168685364362628931e-01
-5.452962106894390093e-01
4.754660149151279658e-01
-9.464641347312596764e-02
3.222346551022312600e-01
2.121423516375413598e-01
2.538168557101767586e-01
-9.305848962715679296e-01
-5.922096250204851309e-01
-4.935892599239409817e-01
6.986960584450845335e-01
-6.492186687625700614e-02
2.184538294653504131e-01
-4.827635829821395053e-01
-4.904214063639620313e-01
-1.556405627491419530e-01
-6.589730353450313771e-01
-7.986820045183501415e-01
-2.089673767988029507e-01
3.728791426173154733e-01
-7.848029493508104082e-01
8.555731161646862315e-01
8.134374389571670250e-01
7.618281970678073556e-01
-2.024898370786696322e-01
-2.736623645569438157e-01
-4.264311130202829148e-01
-5.697675712311747187e-01
4.066687319804258571e-01
5.551100563349959938e-01
6.998295645255030450e-01
-7.336185039758003068e-01
3.909164064152954587e-01
-1.692397564534375842e-01
-3.674219884980944872e-01
-6.680776893542226258e-01
-6.557235021596539148e-01
-2.014424097093874266e-01
5.283732375336809284e-01
1.228607868893514254e-01
-1.657090452653258161e-01
-4.503049561320326966e-01
3.067921879592314660e-01
2.391294441899144141e-01
4.576585575305689435e-01
5.795425801762883466e-01
9.507703338144954941e-01
-3.832066115713739229e-01
-1.944674226705218611e-01
2.637765064952071192e-01
-7.855745710429474782e-01
3.954979021510374171e-01
-4.293626926599714011e-02
8.355029071172097588e-01
3.374271974477327518e-02
2.227421495716603861e-01
-2.332027295148353385e-01
-9.148926571795142904e-01
-5.900572730879449779e-02
-4.424590204135359084e-01
-4.177733347715710810e-01
-3.650571614623427941e-01
-4.367315422763384802e-02
9.303399538674583802e-02
2.392447481180062230e-01
4.255418680787068642e-01
-1.881114927574857043e-01
8.087009396764441860e-01
-9.479022266107599570e-01
9.418575210453621338e-01
-3.098894432125365306e-02
-1.795908651879016826e-01
-5.978660534756501388e-01
-6.359682789756162524e-01
-3.903157922269022695e-01
-4.550537437830370902e-01
5.617701277732458642e-01
-3.888083011500778619e-02
1.797697999269614044e-01
6.945675968580979909e-01
1.296805064824511078e-01
3.561463520133250071e-01
-7.208910177436895772e-01
7.418516131131203117e-01
-4.792820534692121548e-01
-1.005096432752654589e-01
4.870766601781029159e-01
6.361393965707302645e-01
-3.121998899986491161e-01
-3.556426387511821274e-01
6.810141091949604153e-01
5.606093731908505795e-01
-3.978572057202387491e-01
9.778966503781967301e-01
-1.869393308805599729e-01
-3.808854700931465498e-01
7.337684119798575377e-01
-4.581836244375234735e-01
3.496699930005733314e-01
2.081153269848148302e-01
9.957325290495244730e-01
-2.511921080502237391e-01
-3.508695872525656179e-01
9.233384757314859748e-01
-8.568619121831444474e-02
3.446176495271504603e-01
-4.116736908725713295e-01
-4.957619484150390665e-01
-8.478200706119835006e-01
3.702724721528973806e-01
-5.724656702391761609e-01
-9.953958074012616564e-01
-5.532327430992085571e-01
-8.860252789083336022e-01
-7.907086440927628690e-01
-5.958163388477453193e-01
-5.223784795701813533e-01
-1.984335524299170039e-01
-8.068415046203054608e-01
