-8.968905269173641503e-01
2.914631980096895614e-01
-4.372469856976364255e-01
1.596468767297984925e-01
5.103585482455703648e-01
6.750930264035484019e-01
7.515901713592973987e-01
-3.923051019591605737e-01
-4.739339162346118961e-01
-7.082113599381272273e-01
-7.053911572870086300e-01
9.476159187558819141e-01
-3.519018875075672348e-01
9.192560461256893412e-02
-2.596808237463351654e-01
-4.612864943274619378e-02
-2.846421308261664063e-01
3.887878490861418346e-01
-9.913656919536535383e-01
-1.208558415245253315e-03
-2.981983209967038473e-01
-2.152026396081545556e-01
-7.031833875220290242e-01
-8.383079244086990567e-01
8.046582062993978823e-01
-7.580104590447414026e-01
6.726665959446243015e-01
-6.951848611755773177e-02
-7.607142812552614153e-01
6.867494701358267672e-01
-1.885060030908414230e-01
-3.077360166226317251e-01
4.631464148842900919e-01
-5.969648084129324239e-01
7.500972819024680494e-01
2.068305447807510244e-01
2.977388618786605545e-01
-7.687999688432022305e-01
-9.110208926707297206e-01
9.357003557892955570e-01
7.358781813516834802e-01
-2.424066688680603932e-01
4.475826254840489238e-01
5.677215253420282437e-01
-8.113740454157809534e-01
-4.852094077040169928e-01
-9.546888757974636430e-01
2.687572646495817175e-01
-9.344765511424868443e-01
-2.060759896229715782e-01
-3.005006467072961485e-01
-2.632077119720388492e-01
-1.320496200682299559e-01
5.847965563942165712e-01
-4.684360817660757625e-01
-8.772378412632220179e-01
6.039944340204517204e-02
1.930898529602258495e-01
-1.512607266774006476e-01
2.171646783052763041e-01
6.620335595567211628e-01
8.981153428681925011e-01
-2.108219459100300064e-01
-8.782748837293028465e-01
-4.603978427521482342e-01
-2.854816965243289761e-01
3.275937821450791709e-01
6.418868692358341566e-01
-3.307021487949232119e-01
6.658035461494054008e-01
9.575844039946341812e-01
4.098499395237444887e-01
-4.606191762219143948e-01
-6.405110454306861545e-01
1.722422658917668326e-01
6.224706810316544825e-01
2.128997440515238981e-01
4.649157976416901095e-01
-9.133825954471643804e-01
-1.507600515242488171e-02
3.939507048322770100e-01
-8.898847251770636291e-02
-5.635907041384407012e-01
-8.224913716219488524e-01
-6.227314680937687807e-01
-5.935897540384014182e-01
7.113567176425639182e-02
-9.665920355837531730e-01
-3.566690510935259795e-01
-3.342461370155629385e-01
2.680044066427995642e-01
1.525764470002810569e-01
5.336189555955166419e-01
8.210451109766703226e-01
8.343362823149691465e-02
-9.185335817158382099e-01
-5.643032064601138931e-01
-7.611857446597019017e-01
-7.205320425383678895e-01
4.252687951789060339e-01
-5.196180130266438990e-01
9.628725391257875188e-01
-5.755308066963766844e-01
1.939821570674902240e-01
-5.940465163325514553e-01
7.218850731459651726e-01
9.378741526970968412e-01
-3.747423532714713179e-01
8.936174800248204431e-01
1.497399341993557176e-01
8.843180085821908953e-01
-9.712045865354921315e-01
2.518029681129130282e-02
4.597527923308311060e-01
9.958610583510039138e-01
-3.892150002136943732e-01
3.197914934220542627e-01
9.490124104836892283e-01
7.411681358976658363e-01
4.532085765112296993e-01
4.827690070362080643e-01
-6.713472036227292605e-01
-2.619686063122641517e-01
7.046468747736291949e-01
-4.331526697084338018e-01
7.512829917570558180e-01
-7.178342148311978033e-01
-8.619749956119664436e-01
-2.083425737916873022e-01
-9.494874419664656173e-01
-9.290468162107836658e-01
-4.273083063953464489e-02
8.191304046438712128e-01
-3.583046651730372734e-01
7.008530521723612683e-01
3.702497094769685582e-01
-3.971594607041772917e-04
5.814280932228708121e-01
9.155293220681053334e-01
-4.323402219108738453e-01
-2.727829537367394419e-01
9.495447566735748524e-02
-1.116127019964137101e-01
-7.358484224570571719e-02
-2.198517001051358832e-01
-3.834361490162498942e-01
-3.146254275382005527e-01
2.375918633627651655e-01
9.841451279311876910e-01
4.139471714219546961e-01
-7.349412628944880232e-01
1.285277595452616328e-01
-1.275276967585754484e-01
4.083984208047644060e-01
9.207615341481780735e-01
-2.526764584487453114e-01
-3.351449163427915323e-01
-9.584198295164811920e-01
4.306463597737824056e-01
1.558592316514311182e-01
1.976566061353723924e-01
1.665946645905675982e-01
-8.346764160797091048e-01
-4.178483264049248080e-01
-4.409419799912497329e-01
-8.528599832943537518e-01
1.054260385092478103e-01
-3.871364665235910163e-01
-3.058080147749486777e-01
5.812966010339153389e-01
2.418727373742335374e-01
-1.947254463282943604e-01
-3.498470948863918739e-01
1.803386139827192203e-01
4.135731139648801680e-01
4.077883474403722897e-01
-6.765873009629663759e-01
-1.275777303840650578e-01
-3.756415254689307037e-01
-6.094891457472304541e-01
1.460278314471415428e-01
-5.511580228208576848e-01
-9.909664050068072161e-01
2.930070375729638688e-01
-5.320072130193327364e-01
-5.189538522992622749e-01
-3.742471646099065907e-01
8.263327119796641806e-01
7.349025761106549037e-01
-1.029410731199631446e-01
-5.415165301258443309e-01
-5.124590904462611451e-01
-4.726034012585249577e-01
8.387027136485358803e-01
-6.113568697569753407e-01
6.879262917544921585e-01
-3.763157049653333974e-01
4.252760848088972256e-01
-5.071557750636828121e-01
4.525371879246724571e-01
-3.146820253807747214e-02
1.088262378677322673e-01
-2.882519033040549239e-01
6.563792881858077077e-01
6.911527071872578531e-01
-4.232226051725940241e-01
6.723828059144136837e-01
2.976414340557234084e-01
4.082665348896270530e-01
-2.261707030974469124e-01
-1.686319230355974863e-01
-9.732282362958077915e-01
2.902264062277880585e-01
-5.188349585870499769e-01
-5.952371563576714930e-01
-7.905927817705378224e-01
-3.329998640953271138e-01
-1.744992626596486573e-02
9.691871412225472326e-01
6.140483951242186045e-01
-5.957287688982206841e-01
-1.254223550406463605e-01
-5.166640250525227351e-01
-5.548459673121246549e-01
-7.689379628633843389e-01
5.291673121182047801e-01
-7.932129578458471664e-02
5.994823387494250255e-01
-9.720101005783166048e-01
-6.492260938580545204e-01
6.367261529392738151e-01
6.112162971513643850e-01
9.525439054654105675e-01
-1.455250718232825591e-03
8.540921351441659315e-01
-5.293382073506349705e-01
2.752814188981396182e-01
-8.106782888045171998e-01
-8.239206206730746995e-01
-6.926218373434791520e-01
7.115832814540432594e-01
-9.986388929290506145e-01
7.065236290752376913e-01
4.479573463999799721e-01
5.590165933606119353e-01
-6.238137001972405837e-01
5.659111742871132389e-01
-3.943487755266485983e-01
-1.746385165588026922e-01
-6.246081609485070185e-01
-3.893298444640513889e-01
-1.286521399724971371e-01
