-5.851155929641091991e-01
1.388975641774929937e-01
-4.217570979884244231e-02
-7.903104889388321563e-01
4.765258916652808097e-01
1.719251365292957523e-01
3.855384111665218771e-01
-8.719230364417631662e-01
-5.750109644699592515e-01
-5.997227367542747878e-01
-3.172858160942029215e-01
7.997110367777646722e-01
1.822406573520862771e-02
4.105385860645758278e-01
7.655227333362861764e-01
-3.354044305806156423e-01
-7.370836509801281800e-01
-2.126759624005416516e-01
-7.710421807118501558e-01
-2.372292903914836604e-01
-9.875820569735438426e-02
9.215336438382819573e-01
4.764257152682522811e-01
-7.041473962053770297e-01
-1.817640628031358396e-01
-5.516920585761031504e-02
-1.499309429560371498e-01
8.978659766006638066e-01
-6.029184313492121916e-01
5.547823819505854903e-01
3.185110728362381405e-01
2.710981263059530910e-01
2.006547039040960101e-01
6.844715924857776024e-01
-4.584058092602532053e-01
8.566441851307571298e-01
-7.921022540468314332e-01
-8.544393282403524026e-01
1.694609190245186525e-01
-3.052281396121958590e-01
-4.395394018215867948e-01
-3.634182974519868381e-01
-5.506075042864051472e-01
-7.871642342093254641e-02
9.129684950759413553e-01
-7.900974612807658559e-01
-4.144507099033736264e-01
-8.107106983186813665e-01
2.136083444158727307e-01
-7.542835371876497330e-01
-3.172765848730429994e-02
-9.750118343125622200e-01
2.979440251021654440e-01
-6.871768126891819595e-01
8.090883674482229893e-02
3.517126805804866585e-01
-5.467239140978576994e-01
-4.245693746715875072e-01
1.759372629389410747e-01
-8.762033772742630067e-01
-8.129173309279251747e-01
3.514691091615256280e-01
5.207152695113514973e-02
-1.757955823467498568e-01
-8.435941015642876017e-01
2.499007263988639593e-01
-3.358796621561404017e-01
2.176119692773132996e-01
1.581326526243636010e-01
-9.901191521546581775e-02
3.295051440023388789e-01
-1.534644227796542193e-01
-1.590153988273161900e-01
-4.496896430691679214e-01
5.475182391826391992e-01
8.538618497914827188e-01
2.513455294162376674e-01
-8.248012700460607416e-01
4.365411797925795589e-01
-8.070480677651965529e-01
-4.203041341119084784e-01
1.461687395529507327e-01
-5.224476460111895371e-01
-7.261884397085343057e-01
8.886727723958753877e-01
2.950084061625355414e-01
6.994793492746802510e-01
3.062451670618160371e-01
-9.580394170670845089e-01
9.211277540072539960e-01
8.514982960607728746e-01
9.237495664535617657e-01
6.038811961978096665e-01
4.508612909953286785e-01
4.075049953194092023e-01
-3.884546855225654571e-01
4.151410514873568047e-01
-5.223283442046635638e-01
3.001676402265947008e-01
-3.343930651822397682e-01
-1.553889487157649185e-01
1.625113363902348507e-01
-9.981418337042258226e-01
7.553195120519666794e-01
8.796972677830141585e-01
7.877692630197477008e-01
4.473315116483511655e-01
3.545676498989114300e-02
-9.625616516866828398e-01
-6.229800063381829567e-02
-3.916000050948924560e-01
-4.716046085051084358e-01
5.703977213899724674e-02
-6.747195390763478517e-01
6.018148377962431184e-01
4.545559473399705119e-01
3.421401633130356501e-01
4.011758601586379314e-02
-4.283677090486563976e-01
9.773412902706841709e-01
4.618437900491083603e-01
-8.904122173992781164e-01
6.066210241968952310e-01
6.958252987110655763e-01
1.182709079964672227e-01
-5.419377282076012214e-01
-2.642110574009799429e-01
3.412851209151610554e-01
6.410170170371054521e-01
8.742205324339693551e-01
8.596954165773980083e-01
9.102008376471681927e-02
1.176842525510346515e-01
4.991210373624932473e-01
-6.799286279790306420e-01
8.191865360875727475e-02
6.129601761356178180e-01
-2.093483640858320172e-01
1.915565862110990558e-02
6.794090742660758853e-01
5.220615809642645821e-01
9.137847209423013428e-01
5.483228788750063032e-01
-9.342462850613353353e-02
-4.290204441041594041e-01
9.717047756001480074e-01
-3.698970377717605285e-01
-9.586193606176673931e-02
-7.403280749789187265e-01
5.933584173832826547e-01
-8.903857337118814552e-01
-2.968567348050392685e-01
6.827158332447880174e-01
8.331687680616861602e-01
5.857122279032940249e-01
8.552372377324617414e-01
2.920830520096666660e-01
8.928578191231701933e-01
-9.394414581096621752e-02
-5.442394770545999627e-02
-9.592420598703133017e-02
7.023066904965824531e-01
3.744128921687481792e-01
1.762273804330600768e-01
-8.239467728660321288e-01
8.507922321104510743e-02
-1.026306242110663902e-02
-7.722069387842211974e-01
1.916969068321199288e-01
-2.766161568749032629e-01
-9.261821387769904046e-01
3.507552857990723361e-01
2.733269853512907410e-01
-3.759987519700092040e-01
-7.366845375039172694e-01
2.678038969824720894e-01
-9.861924042379983657e-01
-3.347452224524107844e-01
8.016754902552976070e-01
7.269381768491167684e-01
3.252201990242939988e-01
6.067682424742830705e-01
7.207465048483729930e-01
-4.510847204888730477e-01
4.050513396945532030e-02
-9.392073315804445599e-01
8.638131134093467445e-01
-2.065197090283346082e-01
-6.694623185149728428e-01
-6.054017348205680271e-01
7.637272531583980673e-01
7.304952780704190296e-01
8.847070146282476344e-02
9.712994095172065023e-01
-5.490123373247279837e-02
-7.687538961120639058e-01
-8.216117585267455059e-01
-9.771343663377072275e-01
-3.181018240550932408e-01
7.968290861783473567e-01
-4.275692269873232476e-03
9.045108438960960395e-01
-2.090087439750432097e-02
-2.827744281399784398e-01
-9.784897949594317801e-02
6.004022468301917215e-02
-4.831642499179769068e-01
9.065813118400185555e-01
6.100835617896522844e-01
6.313026213236834217e-01
-3.138773550501205989e-02
-4.645929534631594304e-01
-8.821785976243246008e-01
-4.892157966351495801e-02
9.276115038892085440e-01
-7.887965105767329455e-01
1.418123365795764812e-01
5.907457354936473948e-02
-7.292863485632685716e-01
1.941130093390652789e-01
7.599370444648860801e-01
-9.786745844773623304e-01
-7.710763344972426658e-02
3.998843877754418852e-01
2.205812324926086365e-01
7.389685681949038631e-01
-9.928267308877642972e-01
-6.521130380659123649e-01
-1.234166132465146504e-01
-5.338901985490593916e-01
4.520188164439318257e-01
-1.412841625899166065e-01
9.366835565825009091e-01
-4.215762120408286240e-01
4.820626103845779831e-01
-8.059241368557874541e-01
3.900539578920936279e-01
1.490251812799952003e-01
9.426799015252997904e-01
5.240090549580185275e-01
5.071079850726962768e-01
6.525402536191351466e-01
5.346290392384374091e-01
-3.267131822438382738e-01
1.849692787083891954e-01
7.832837634073497313e-03
-4.481900078044653846e-02
-1.350712662196389413e-01
-4.062879772728789085e-01
7.240151723666108374e-01
-9.511634675558267027e-02
-3.727093808824246679e-01
2.958299453354444886e-01
-8.233556219438153967e-02
-4.537964146192543513e-01
9.332935891784346349e-01
8.934767940128429675e-01
2.780249409615846989e-01
-3.698446315075492041e-01
6.842687853558599986e-01
2.417266304728511450e-01
-7.031756158935451584e-01
2.739205854702615461e-01
9.331996329405942703e-01
8.496364250444168320e-01
-9.418380108259798433e-01
6.919928770655237038e-02
-1.904190417637448007e-01
3.348045212972354800e-01
3.028738404542070661e-01
-1.377302264016544431e-01
-4.927519752944335973e-01
3.709704768812649434e-01
5.533954625682386830e-01
6.591505692230739122e-01
-6.214224183744674335e-01
2.945819763268886504e-02
7.958788474807994007e-01
2.726231880644660599e-01
6.792821002244628925e-01
-5.613022936901257420e-01
2.058089528103173027e-01
4.028285024041198259e-01
9.843156514647180000e-01
-7.656199582291118855e-01
-1.820919827582010431e-01
9.563698817563250909e-01
1.713341348033448064e-01
-4.273315812722620066e-01
1.868056861122042722e-01
9.194534060674461884e-01
-8.623107445533428894e-01
-9.389990784526263123e-01
5.455282916498651602e-01
-4.981470993623102750e-01
-2.636039412458419662e-01
-7.576395621606979436e-01
2.102793503830124866e-01
-9.066326745497370609e-01
4.972812385500251509e-01
8.365558792075922234e-01
8.521347747754837165e-02
6.322208828229121114e-01
8.958670785680278303e-01
2.375572227583964136e-01
8.414727230316643158e-01
-7.363671841137058305e-01
-4.079239380960655303e-01
5.993946396944154209e-01
1.316426905939493963e-01
8.207988923657232316e-01
4.129813113316687101e-01
3.516801449508395461e-01
4.310414627866057113e-01
3.217223193933200776e-01
1.440504555584836144e-01
4.337671780613852057e-01
3.326227123809211150e-02
6.525138710841194012e-01
5.219475561275608300e-01
-6.986843873083901091e-01
7.771858991423592489e-01
4.571371208231929106e-01
-9.102610634690615488e-01
1.040166527069761315e-01
8.583537018890543546e-01
2.917480942284633727e-01
3.651070088023060656e-01
-2.842016548612678051e-01
3.849940244004534939e-02
7.330113897214685093e-01
1.542744717217963135e-01
6.453974960089876589e-01
6.439210206532108849e-02
-7.757537810862684680e-01
3.653387067418201184e-02
-5.890057541498261440e-01
-8.274404872778751141e-02
1.380677030660051319e-01
9.090828719714207917e-01
9.946481437573824191e-01
3.766053533367168527e-01
-7.675751356758599986e-01
-7.989470025790734731e-01
4.840631433525839356e-01
-2.244343996754378789e-01
6.835972803490055760e-01
8.560562790749437490e-01
1.383975206330878560e-01
4.444778618790334868e-01
9.845784023695225429e-01
3.262442776776197650e-01
-8.163050825054551929e-01
-3.464985272111176240e-01
-8.800196379087612542e-01
-4.287048490698481817e-01
3.890235177808285538e-01
-6.894335775737412408e-01
5.585020222984915517e-01
-6.470306389611706344e-01
-1.282456868293200269e-01
6.167757482862139540e-01
5.177653793715826236e-01
-5.756261373848368113e-01
-1.273036763457069398e-01
-2.637891777434644425e-01
-1.209584420206288868e-01
-6.808382276993045767e-01
-7.940734712072698986e-01
-5.440315107676636508e-01
5.301029363576725828e-01
1.123364826460697685e-01
-1.594878292675694365e-01
2.506736595671141821e-01
8.028511448240376325e-01
-2.642507022982119036e-01
-3.810046496644834413e-01
9.788721714721395628e-01
3.023939722438255817e-01
-4.140388665801306711e-01
9.454926276609472158e-01
3.535788210374737339e-01
-3.043080767998167513e-01
-7.419951653638752198e-01
-9.830429331238987878e-01
-7.132430965872758044e-01
-5.667642258059533145e-01
1.620632843174643067e-01
-1.839161823098982573e-01
-4.604828564577774230e-01
-6.347557389954738838e-03
-4.920288347283421349e-01
4.876164612338216298e-01
-9.569497148672478914e-01
-1.751906448963858054e-02
3.022325794751150596e-01
9.795223146392231239e-01
3.079351195014488063e-01
5.512849555045460370e-01
3.137589503784636857e-01
2.445593412306799053e-01
-5.308374716818802241e-01
-4.630095779400078548e-02
6.421059938149713542e-01
5.816998712278125261e-01
-3.455931354399499611e-02
-3.692637417423272339e-02
-2.829573247116141665e-01
3.082481183964127514e-01
-4.537244168876035655e-01
7.086227337515793590e-01
6.555400448795407620e-01
-7.392615078059334710e-01
-6.316994405366000986e-01
-1.031422495063474276e-01
-9.389696762973869237e-01
1.301177359054950244e-01
-8.672504492293513501e-01
8.687492504247424918e-01
-7.604878314404817097e-01
4.559488744493183088e-01
4.096052229440074743e-01
-5.610148749217460651e-01
5.827149261667570190e-01
-1.334874564377492856e-01
-1.729573255594432091e-01
-4.115863014248404284e-01
4.737412440936712432e-01
-7.542137780599043051e-01
5.973466067533519386e-01
4.134964164594105984e-01
8.602547457393279196e-01
-7.758870801578154897e-02
-7.644573343221325867e-01
-8.179986020279275127e-01
5.277298916841768328e-01
4.445468740658937712e-01
-8.308287582345503797e-01
-3.334900026890577074e-01
-5.131027057438002359e-01
-5.108974953654461526e-01
-6.670447058412025676e-01
-2.066052136937472916e-01
1.072594743998678268e-02
-2.669908524984039300e-01
1.666709183464480937e-01
7.669493739520654163e-01
-4.026078304239555372e-01
-1.082068115326146884e-01
-5.870986159674140836e-02
7.009482964394015969e-01
1.313475242343027372e-01
8.150697995419151631e-01
5.073355221891391320e-01
8.573973370841720953e-01
-9.373492209840517120e-03
-5.225180422453321594e-01
3.735853293747926074e-02
1.846397322025652432e-01
-5.199420256228795001e-01
