-5.520522817501423429e-02
-5.623860447792133899e-02
5.999065971589045976e-01
-3.470479984057088796e-01
-7.122204461246166574e-01
8.608096983375077560e-01
6.217762700069235926e-01
6.842639158695096313e-01
4.768693606641098981e-01
-6.243303117645093714e-02
4.717765984254704836e-01
8.010907652393377543e-01
3.850101771392342442e-01
3.533847145665582890e-01
3.944417559038371213e-01
-1.345677265840950210e-01
-6.890159757415803554e-02
5.333279810324480508e-01
-6.355654014057974255e-01
4.874404588224792167e-01
-7.374871112002931994e-01
-7.322451597479018304e-03
3.730348445657449830e-02
8.373717260258386474e-01
-4.797638698291901704e-01
-5.365513273397590766e-01
6.281927685064361278e-01
-8.125517621934823520e-01
-1.941983486650582513e-01
7.688348884236386738e-01
-5.939386012349959221e-02
-1.790689813119089591e-01
-7.013449952920698394e-01
3.474433807492947057e-01
-4.569063778281678978e-01
3.079712947483480567e-01
-1.221411401330865232e-01
-3.015612784503165500e-01
8.562599831202581946e-01
-3.951746191032521338e-01
-1.708798537972675557e-01
-8.133086359495671491e-01
-3.331115474235442075e-01
8.995879414546275044e-01
-2.881633381521142567e-02
-7.535764515430243282e-01
5.194512430943876158e-01
9.936288341858869888e-01
-5.289311365472391113e-01
-2.062453477155328230e-01
5.554737456876945867e-01
5.418296462783454004e-01
1.860005335681398364e-01
-9.695876048832532401e-01
3.487679892775896739e-02
8.247675245185319692e-01
-7.299031111788667481e-02
-4.998353335725378432e-01
-9.766480765303879874e-01
9.135812013546680266e-01
-3.187081609185618003e-01
6.060333393625718656e-01
-8.072938747028444162e-01
2.975039629456111001e-03
7.387201942217025419e-02
6.350526515742913602e-01
8.167413402782595089e-01
5.020814359117213854e-01
4.462461430276294383e-01
1.406528997852651841e-01
-2.092633526210316841e-01
5.284448902634153455e-02
-4.182732804983932962e-01
-9.379052864971750836e-01
7.199717882460257012e-01
-5.795442786287343662e-01
-6.239307406091318953e-01
-5.406584421853517508e-01
3.055675436620626240e-01
9.186431663004333004e-01
-2.094087291408173179e-01
-2.409828106762179623e-01
-1.652058507675113752e-02
8.132332639141697239e-01
1.653482672642989648e-01
-7.018156765278984466e-01
6.678727355328997195e-01
-9.998259999816641042e-01
5.159079589578123848e-01
-3.575100014026981743e-01
-9.808304070544437980e-01
5.354295911930555540e-01
-1.678711248402802170e-01
-5.515065343945579901e-01
-4.902992127030321168e-01
6.899657006373669521e-01
7.890201476347824538e-02
-9.669023382500756547e-01
5.496834759530837555e-01
1.455673533119274943e-01
-2.858083940328279837e-01
7.448852051032028854e-02
-8.647128272396105153e-01
4.031069447064470346e-01
3.408670324321508849e-01
-9.632291187632426865e-01
-3.538030618209849765e-01
2.660275873225854681e-01
9.843136971753785325e-01
7.878868933743041758e-01
8.533202244437179118e-01
6.185028423439139500e-01
-3.801724914171180636e-01
8.591242508073184680e-01
-8.850991082660564224e-02
-2.939841697200222814e-01
-9.977557466433100153e-01
-1.137151850836506384e-01
-3.045969469894624915e-01
7.543156947751421537e-01
-5.171270661640527955e-01
1.597304057617534578e-01
-7.859463778030248982e-01
-2.677912052579394242e-01
-5.971139875047978274e-01
2.447426939257009160e-01
-2.966786694495835430e-01
3.006480538831390881e-01
-4.887808907517248169e-01
-1.841396231731573518e-01
6.364528072792465796e-01
6.362945070443504214e-01
-4.157762745692021866e-01
-5.551388766886670156e-01
-1.744898989025602809e-01
7.165393399634727434e-01
2.523895266232656365e-01
-6.895206786504699537e-01
-5.938465098591945157e-01
-8.529011070638310432e-01
6.792634965397865709e-01
-8.026929404976590465e-01
-4.130476735789989640e-02
8.295219822507271523e-01
5.940667886869548386e-01
3.702260019299199456e-01
8.259289059698282642e-02
8.792982491824994362e-01
8.072657976293353688e-01
-1.884407007658959188e-01
-4.605952501689348222e-01
-9.665323453559222511e-01
-5.641541672145675701e-01
4.223360501375097442e-01
1.426112991488147075e-01
3.311222231007542316e-01
9.956776801104716412e-01
8.366132013353484442e-01
7.936119481540437892e-01
-7.089709962206121041e-01
5.353379055290419242e-01
-1.477195649617613071e-02
3.032384778284949456e-01
8.308079973387416661e-01
-1.776349972232702523e-01
-4.982857368566457890e-01
5.297315240766107269e-01
6.867211522817048275e-01
7.713949729465174876e-01
-5.017160029881102545e-01
-5.250903156074726574e-02
9.624812072376223160e-01
5.918119854400585300e-01
7.280319438789715214e-01
-4.807613556919445585e-01
2.800547150542853636e-01
-7.607689365043910357e-01
9.511184129558547529e-01
-1.084736412569411446e-01
-2.688729723099869684e-01
3.054101599459511651e-01
-8.105295958833766967e-01
-4.239046619512434333e-01
2.164004780405548445e-02
7.646291547894645824e-02
9.932645849419352579e-01
4.334033423406895569e-01
-3.875067796366675754e-01
6.210232697526203438e-01
7.157510911985838220e-01
-9.190906904857842896e-02
2.060209468755578310e-01
2.097719438886269661e-01
-4.823068410990372090e-01
-8.026291500753468533e-01
-5.299200255047888941e-01
9.499690514025949106e-02
1.399378973835772033e-01
5.543771509321637758e-01
3.370101642053693336e-01
-4.986589826774643353e-01
5.735371493483565342e-01
4.112210458133509494e-01
1.699906468673269277e-02
-1.854860190230478434e-01
1.324050012147310884e-01
7.380068988378394312e-01
9.881475846942511243e-01
-3.565442570541899059e-02
-6.766083007200041077e-01
8.584669273698237735e-01
-7.466464832170554011e-01
-2.633086551434860034e-02
7.104146673053930439e-01
5.991299833648120465e-01
1.369999418074103748e-01
8.368717493537367602e-01
3.364094236137840088e-01
-2.783248181474902161e-01
-3.391405207469913030e-01
-7.101972091085915206e-01
-5.860908164024403177e-02
-7.393402043028323156e-01
2.421814916692022202e-02
-2.533203361051141744e-01
8.647788123924098347e-01
3.113043685738041688e-01
-2.115451785911062199e-01
9.903959576420229283e-02
-5.294427066478297750e-01
6.637955042077787748e-01
-3.526051484915162515e-01
-9.054290475865065524e-01
9.206881886357252132e-01
9.371360892074416249e-01
-1.787576460677753332e-02
7.557966307120231875e-01
-2.072944060007166911e-01
-1.926862578503124590e-02
-4.258621967927160856e-01
-1.355500284549784329e-01
6.270130588963322982e-01
2.058255995765495283e-01
-6.543270504176645908e-01
-3.656827917533634342e-01
3.666088539047265282e-01
5.198588129367061050e-01
-7.300193738381144382e-01
1.658450432832021537e-01
-9.425169294422430788e-02
6.834834419434354658e-02
-8.613728763709560532e-02
-1.975725984204923513e-02
-9.758406989136645393e-01
-8.443738887261909021e-01
-7.879018466636877882e-01
1.846079612177431439e-01
-1.257585703772723384e-01
3.566333187025387819e-01
-2.659438743294195717e-02
-6.595867302980027436e-01
4.470909616586420388e-01
-5.411144170619530680e-01
-4.992641662550201254e-02
7.798265880916641635e-01
-2.876809677629439399e-01
1.232260063527661487e-01
-5.897536006754842131e-01
1.864990441317728731e-01
-1.768995423898331865e-01
9.333101897198483599e-01
8.838932274948163581e-02
1.033215645306551078e-01
-3.332799380497972752e-01
6.979506839201581325e-01
4.499839503399176710e-01
-4.687904839515595334e-01
1.652955358171226408e-03
-3.165781329483103868e-01
8.147411743794792383e-01
-8.268695833746186885e-02
-8.416306152704424726e-01
8.807953472755956081e-01
4.438996815340077173e-01
1.465542620448674338e-01
8.892741649988569197e-01
-8.243055385276010227e-02
5.066720188567135352e-01
-2.305235808390002639e-01
-6.317994299449214424e-01
1.376067490931862647e-01
5.107092574054059586e-01
8.455300444307607410e-01
-3.874132936738239330e-02
6.419597120859621420e-02
-2.125247167588875108e-01
8.201143683900278258e-01
-3.938453275404917298e-01
-9.395875445092491951e-01
9.967663532738681997e-01
2.411734803414156136e-01
9.347509133106612911e-01
8.637497224514965044e-01
9.327334672527853865e-01
-1.696835274645913660e-01
4.393813453842758676e-01
-8.251154136651031035e-01
-3.685471343672468425e-01
8.539114914786680721e-01
-3.017073545084512087e-01
-4.343582488193680202e-01
-9.843807296860509481e-01
-5.003621291706064067e-01
-7.621002302938235662e-01
-3.837893198096424818e-01
5.366847036892248290e-01
2.166203812861144939e-03
-7.054931285099066418e-01
6.333125386640168220e-01
-7.207284283486439236e-01
-2.963705561696301505e-01
4.364401478623172181e-01
-2.113841770394015995e-01
1.468913296628491238e-01
1.216449057102115816e-01
-4.831633644489137236e-01
3.973501232362910418e-01
3.558459791895418611e-01
2.056756472034675376e-01
2.498025720860002075e-01
5.079061349771896161e-01
1.844892357710967712e-01
4.941160715332437725e-02
-1.813689463645591360e-01
1.279812320513862289e-02
1.949889538090092689e-01
5.011214291609820126e-01
-3.563836508682705073e-02
-7.345748751790803777e-01
-2.051990910281986658e-01
-3.574747891077330042e-01
2.127768848312155126e-01
-8.079932458652347993e-01
1.306828696294710657e-01
-2.079048314011151533e-01
-1.416238019111450974e-01
-6.253646501354674925e-01
2.798575444714783700e-01
4.951190493841892692e-01
-6.837190949545350893e-01
2.907603831471057276e-01
-3.870176747697233743e-01
5.559527803608672603e-01
3.735959755277242778e-01
7.953325513898090726e-02
5.734966352294599279e-01
3.895595103059492637e-01
-3.858471137070178525e-01
-4.281558680141677176e-01
-4.938003984189534012e-01
4.549775844789512025e-01
2.590631908839446940e-01
5.988946982785290363e-01
-6.478158053721239096e-01
5.438121662524819655e-01
-3.032075713706126052e-01
-7.790899906144175269e-01
-4.594393720358211919e-01
-9.947159332818413802e-01
8.558199420757874876e-01
-9.505087924827706480e-01
7.526147745224639474e-01
6.753324234876607601e-01
-3.920461031089350623e-01
6.663847705390000264e-01
-3.785189545621592266e-01
2.193907777907708745e-01
-8.891317021533540199e-01
-1.306783648691474120e-01
4.115751205831157389e-01
9.514921101581284013e-01
-9.399139084801921840e-01
2.415203792830866725e-01
6.213864225507791383e-01
1.227835426980128375e-02
-4.350547319946342917e-01
3.468642467751377190e-01
8.086735302312559881e-01
-5.154260075942278529e-01
1.945877816459891108e-01
4.962896065247144328e-01
-3.202038254007537610e-01
8.183490899194532098e-01
-4.986788642302144581e-01
4.797574696174782272e-01
-7.509093048106392221e-01
-7.148693887714230311e-01
7.672301151834803878e-01
-9.843610904012312091e-03
-2.709242539765555069e-01
5.888679111571746283e-01
-8.536002910476869765e-02
-5.069358404013759589e-01
6.646681336159230291e-01
1.997727408078273648e-01
7.900899366690097292e-01
4.196927076718011129e-01
-8.102250367199106407e-01
-4.296124366993476773e-01
-4.745708147299088075e-01
-7.411018234597697152e-01
-8.683912830826405749e-01
-4.882260566074707597e-01
4.246834833931408815e-01
5.135027323623297946e-01
7.620064697354202998e-01
6.808330700699007920e-01
-9.618475100471211015e-01
-4.549516759433700486e-01
-2.324229044457082338e-01
5.167227893608880018e-01
-1.385010316535884023e-01
3.407911511961865259e-01
-4.932187571134070136e-01
-1.948783973510346268e-01
8.189020318257580477e-01
3.265075306190339255e-01
-3.057866342766841772e-01
